{"argNumInputs":9,"argNumHidden":8,"argLearningRate":0.01,"argMomentumTerm":0.8,"bipolar":true,"weightIH":{"m":[[-0.34228595304017706,0.022277030952600047,-1.844570844587237,-0.11421006532032008,0.41418218535597534,0.3035551068957882,0.17022332196690865,-0.5653028725646234,-0.28584594830790655],[0.15293331638409727,0.19445267638342503,0.18623988116992216,0.3583952136756089,0.22163666074868646,-0.24271092098777075,-0.1832971080004705,0.4576096142982697,0.47112161735864366],[0.050743220515822585,-0.1521749207846581,0.1265526185016765,-0.10556528196909713,-0.3631495877719954,-0.16139266514850545,0.12471469263748268,-0.06361677693465198,-0.4988278030130636],[-0.7136037990903845,0.4304352553607685,-0.331812219034392,-0.032850167145788846,-0.16475461379943349,-0.3355725212331595,-0.1017663993261337,-0.04430747179373598,-0.5696120202601499],[0.8254181575883969,-0.7943441731386881,-1.1461188323504818,-0.3544378854811727,0.44309166573607683,0.270875725282902,0.29577166285361267,0.007641026624289192,0.5524458915578108],[-1.0914823035007029,0.1475721595470704,0.25867881055087016,-0.5343615628407805,-0.043423286264385685,-0.25384685036006227,0.16832070627946066,-0.5558065540345334,0.2833627775794802],[0.4695049615033461,0.09283088127065936,-0.26208512502274445,0.11750056072520253,0.12255284854024731,-0.09981933937541868,0.3963873664941251,0.523460520847264,0.3218421507002024],[-0.4753293098133939,0.249742786789515,0.2887806740076536,0.1315607657135965,0.18623394868339985,0.22886495097566614,-0.12703952585424125,-0.6958035339535679,0.13579265638850962]],"rows":8,"cols":9},"weightHO":{"m":[[0.8524641161158765,0.02484720339529367,-0.0427645470172967,-0.3497285102448478,0.9103819388776173,-0.6564137523814276,0.4384545069577778,-0.4978696350228847]],"rows":1,"cols":8},"biasH":{"m":[[-0.6824412648037848],[-0.40946780307877423],[0.1768502297544091],[-0.13251704998838296],[-0.24701890042412092],[0.06731950125562158],[0.458132465764999],[-0.5318187412105392]],"rows":8,"cols":1},"biasO":{"m":[[-0.05501204556696894]],"rows":1,"cols":1},"weightIH_v":{"m":[[7.471305732302527E-9,1.735089453855403E-5,1.1680955855931521E-19,1.7350894538554614E-5,1.7350894538554614E-5,1.0E-323,-1.0E-323,2.672481971393184E-35,1.0E-323],[2.154040307386422E-10,5.016504584355336E-7,3.7604061807067406E-21,5.01650458435551E-7,5.01650458435551E-7,1.0E-323,-1.0E-323,1.781357467688277E-36,1.0E-323],[-3.701317998174187E-10,-8.519082076244823E-7,-6.80509555146348E-21,-8.519082076245128E-7,-8.519082076245128E-7,-1.0E-323,1.0E-323,-3.6786101350397667E-36,-1.0E-323],[-3.212091730125092E-9,-7.338007602918837E-6,-5.632765116380232E-20,-7.338007602919094E-6,-7.338007602919094E-6,-1.0E-323,1.0E-323,-3.1007781499776446E-35,-1.0E-323],[7.179017760048523E-9,1.5369162720587792E-5,1.4639967801732245E-19,1.536916272058847E-5,1.536916272058847E-5,1.0E-323,-1.0E-323,6.396888506038691E-35,1.0E-323],[-5.551580412892074E-9,-1.3364589867129686E-5,-8.869681258312375E-20,-1.3364589867130092E-5,-1.3364589867130092E-5,-1.0E-323,1.0E-323,-4.0865851230044096E-35,-1.0E-323],[3.3289934950526836E-9,7.9157279781231E-6,5.895054801561763E-20,7.915727978123368E-6,7.915727978123368E-6,1.0E-323,-1.0E-323,2.7111291979382754E-35,1.0E-323],[-4.570292650954689E-9,-1.0468476921526413E-5,-8.398857637350201E-20,-1.0468476921526785E-5,-1.0468476921526785E-5,-1.0E-323,1.0E-323,-3.5030823499622635E-35,-1.0E-323]],"rows":8,"cols":9},"weightHO_v":{"m":[[-3.6813487896990026E-6,3.6837238389711244E-6,-4.456245726763201E-6,1.0384496601026805E-6,-9.077096686170305E-6,-3.6347829333533772E-6,7.660767862585271E-6,3.8923038003018635E-7]],"rows":1,"cols":8},"biasH_v":{"m":[[1.7350894538554614E-5],[5.01650458435551E-7],[-8.519082076245128E-7],[-7.338007602919094E-6],[1.536916272058847E-5],[-1.3364589867130092E-5],[7.915727978123368E-6],[-1.0468476921526785E-5]],"rows":8,"cols":1},"biasO_v":{"m":[[2.0410683432361684E-5]],"rows":1,"cols":1}}